svm_type c_svc
kernel_type linear
nr_class 2
total_sv 14
rho 0.462036
label 1 -1
probA -0.65506
probB 0.543064
nr_sv 5 9
SV
1 1:0.69522179 2:-1.1644067 3:-0.24909231 4:-0.045559466 5:-0.38563966 6:-1.2921675 7:-0.26025669 8:-0.80277297 9:-0.70065396 10:-1.1389793 11:-0.77647997 12:1.0124568 
0.1640606114569662 1:0.69522179 2:-0.19406832 3:0.26627055 4:-0.1119066 5:2.5066578 6:0.748097 7:-0.21350392 8:1.2041595 9:-0.43001585 10:0.65940907 11:0.28235679 12:0.51452725 
0.6940810229020696 1:0.69522179 2:0.77627157 3:-1.4516117 4:-0.33748567 5:-0.38563966 6:0.748097 7:-0.21350392 8:1.2041595 9:0.11126317 10:0.65940907 11:0.28235679 12:1.0124568 
0.006756864410455887 1:0.69522179 2:-2.1347466 3:0.60984882 4:-0.4038328 5:-0.38563966 6:-1.2921675 7:-0.073245902 8:-0.80277297 9:1.3742438 10:0.65940907 11:1.3411919 12:-0.97926154 
0.6184867587010775 1:0.69522179 2:0.77627157 3:1.1252162 4:0.61791473 5:-0.38563966 6:-1.2921675 7:-1.2420622 8:1.2041595 9:0.6525394 10:0.65940907 11:1.3411919 12:1.0124568 
-0.2916334610373962 1:-1.3904436 2:-0.19406832 3:-1.0221434 4:3.9750864 5:-0.38563966 6:0.748097 7:0.62804572 8:-0.80277297 9:0.47211399 10:0.65940907 11:-0.77647997 12:1.0124568 
-1 1:0.69522179 2:0.77627157 3:0.094481415 4:-0.019018871 5:-0.38563966 6:-1.2921675 7:-1.9433538 8:1.2041595 9:-0.79086666 10:0.65940907 11:0.28235679 12:1.0124568 
-0.472495508005325 1:0.69522179 2:0.77627157 3:-0.59267058 4:-1.1601918 5:-0.38563966 6:-1.2921675 7:-0.30700947 8:-0.80277297 9:-0.61044125 10:-1.1389793 11:-0.77647997 12:1.0124568 
-0.01290644572079355 1:0.69522179 2:0.77627157 3:0.69574339 4:-0.4038328 5:-0.38563966 6:-1.2921675 7:0.67479788 8:-0.80277297 9:-0.52022855 10:0.65940907 11:-0.77647997 12:1.0124568 
-0.01354747825038697 1:0.69522179 2:-0.19406832 3:1.1252162 4:-0.39056396 5:-0.38563966 6:0.748097 7:1.5630982 8:-0.80277297 9:-0.97129207 10:-1.1389793 11:-0.77647997 12:-0.97926154 
-0.2140180459309606 1:0.69522179 2:-2.1347466 3:-1.4516117 4:-0.70903076 5:-0.38563966 6:0.748097 7:-0.11999806 8:1.2041595 9:0.6525394 10:0.65940907 11:-0.77647997 12:-0.97926154 
-0.3958493923824786 1:0.69522179 2:-2.1347466 3:1.1252162 4:-0.86826561 5:-0.38563966 6:-1.2921675 7:1.4695938 8:1.2041595 9:0.29168858 10:-1.1389793 11:-0.77647997 12:1.0124568 
-0.001221716274235438 1:0.69522179 2:-1.1644067 3:0.26627055 4:-0.2578697 5:-0.38563966 6:0.748097 7:1.5630982 8:-0.80277297 9:-0.79086666 10:0.65940907 11:-0.77647997 12:-0.97926154 
-0.08171320986899296 1:-1.3904436 2:-0.19406832 3:-1.4516117 4:0.0075188182 5:2.5066578 6:0.748097 7:-0.7745363 8:-0.80277297 9:-0.97129207 10:-1.1389793 11:0.28235679 12:-0.97926154 
